Layer: conv2d
(3, 3, 1, 64)
[[[[-0.08385536 -0.05524066  0.10728586 -0.09772648 -0.15072459
     0.02943529 -0.23646313 -0.0985064  -0.15990944 -0.03585535
     0.07638825 -0.3006706  -0.14923835 -0.00542185 -0.06209597
    -0.00611622  0.17126842 -0.11646885 -0.17332485 -0.00330459
    -0.07681967 -0.07296968  0.03356909 -0.24368513 -0.11416937
    -0.0808584  -0.07305178 -0.2455894  -0.03310214  0.00275942
    -0.4377574   0.0336266   0.00729439  0.316697    0.2810848
     0.01429451  0.09526608 -0.25388724  0.40259025 -0.01999436
    -0.00944189  0.08511536 -0.08982063 -0.07245841  0.17762826
    -0.21883725  0.07026362 -0.19071518  0.24330512 -0.40449592
    -0.328421   -0.10264971 -0.37275407 -0.17647566 -0.03825893
     0.02769739 -0.03750281 -0.0115594   0.08114383 -0.05044762
    -0.04298749 -0.00338962 -0.45007494  0.01849357]]

  [[-0.15730602 -0.14078343 -0.05593614 -0.08642931 -0.14093725
    -0.2311727  -0.18059595  0.10110488  0.10381629 -0.07126913
    -0.02386079  0.08000322 -0.404739   -0.21182342 -0.2524801
    -0.17369062  0.12965971  0.13043188 -0.12464895 -0.10291648
    -0.07983568 -0.03009327  0.07185472  0.5583194  -0.10133293
    -0.05447817  0.02067951  0.570843   -0.19692984 -0.05488982
    -0.24507661 -0.09146159 -0.15561976 -0.12895459  0.23233794
     0.04211816 -0.12960574 -0.2975427   0.24801756  0.0352199
     0.27484664 -0.04131909  0.02179598 -0.03901062 -0.08468198
    -0.271704    0.25300044  0.06906717  0.23702858 -0.3801068
    -0.29298002  0.01827599 -0.13851972 -0.18099144 -0.04019989
    -0.03348766 -0.04361826 -0.06205099 -0.10405654 -0.05744607
    -0.16587067  0.03153678 -0.12335778  0.00826987]]

  [[-0.16852327  0.05441068  0.0908751  -0.00524123 -0.15084259
    -0.18246965  0.01480902 -0.07067413  0.26978332 -0.04166038
    -0.01579447  0.22966014  0.23471858 -0.38506892 -0.28883165
     0.04466176  0.02406619 -0.09128677  0.1761126  -0.05615054
     0.19639838 -0.11004952 -0.28124994 -0.40820011 -0.12312437
     0.02170994 -0.10928278 -0.25416946  0.04725038 -0.11833303
     0.21561806 -0.35261476  0.01527719 -0.26485184  0.14361954
    -0.07060936 -0.15721172 -0.35947192 -0.00060286 -0.03327071
     0.25902992 -0.00073641 -0.04016042 -0.11296654 -0.19783074
    -0.04156281  0.39649564  0.24506965  0.31016448 -0.22733675
     0.00917672 -0.22943684  0.07558807  0.0375247  -0.01069087
    -0.10003867 -0.04799488 -0.04684236  0.00103103  0.02101965
    -0.3257353  -0.13215989  0.3496272   0.08009737]]]


 [[[-0.05383542  0.04694551 -0.21540926 -0.0905319  -0.05833481
     0.15526485 -0.01335107 -0.07733779 -0.30248484 -0.02940984
     0.03441669 -0.2416643   0.06487425 -0.2718664  -0.05012422
     0.00921703 -0.21017668 -0.23391806 -0.35900903  0.00832711
     0.06109567 -0.07460248  0.03593218 -0.11463662 -0.11286549
    -0.0780774  -0.25783643 -0.34744367 -0.17300428  0.0145561
    -0.45098898  0.27204314  0.0840281   0.23568657  0.13134094
    -0.09437419  0.05216837 -0.00867796  0.18119904  0.03485628
    -0.21540223 -0.149168   -0.06773605 -0.07192782  0.14619222
     0.00102898 -0.199673   -0.28311983 -0.04952849 -0.09917711
    -0.23939674 -0.11394057 -0.31384698 -0.24582185 -0.09908893
     0.01420411  0.03970073 -0.00312239 -0.08618616 -0.06122455
    -0.07076181 -0.07189684 -0.3403888  -0.14007163]]

  [[-0.12682581  0.01216011 -0.07770647 -0.0585409  -0.02657876
    -0.06354014 -0.12164415  0.05030041 -0.19704798  0.03373975
    -0.18044838 -0.09184449 -0.3520147  -0.31460515 -0.03278522
    -0.22426681 -0.22015435 -0.31702584 -0.18422355  0.01149912
    -0.02514248  0.02505731 -0.05424901 -0.04792115 -0.02710316
    -0.00616004  0.17360415 -0.00383625 -0.16568473  0.02135047
    -0.34992346 -0.05122652 -0.19441798 -0.06269556  0.04095061
    -0.0925061  -0.15515     0.05318476 -0.05585124 -0.05988384
    -0.10369711  0.38807073  0.0218614   0.10683215  0.1355497
    -0.24723446 -0.01738526  0.06254229 -0.09379282 -0.08686773
     0.05080374  0.11156753 -0.13186382  0.0304251  -0.03557717
     0.05646425  0.04264728 -0.0601978  -0.103512   -0.00916197
    -0.02019369 -0.0674075  -0.16759354 -0.12475896]]

  [[-0.12509833 -0.0884575   0.0506765  -0.10006469  0.02717101
    -0.45734358 -0.117925   -0.05342015 -0.060314    0.01333794
    -0.05968075  0.27115786 -0.24018842 -0.28971994 -0.11593506
     0.00980106 -0.08592509 -0.12389919  0.23414929 -0.10229234
    -0.4665603  -0.01315843 -0.24802339 -0.3444897  -0.08216416
    -0.05984591 -0.14295149 -0.01525808 -0.0348462   0.05531222
     0.15014218 -0.40249246  0.02532761 -0.29594168 -0.23777398
     0.02574015  0.251005   -0.02005768 -0.33903673 -0.08883858
     0.05785502 -0.17584084 -0.0854601   0.0116124  -0.21144828
     0.00138445  0.08884895  0.2623745   0.07847655  0.05449025
     0.22807842 -0.14758374  0.02054732 -0.05152892  0.0038225
    -0.04095088  0.02594482  0.02992701 -0.1634781  -0.06215638
    -0.22246549  0.04003763  0.20955953 -0.17651491]]]


 [[[-0.1246427  -0.03524087 -0.23929368 -0.14844559 -0.09453849
    -0.14580284  0.04858757 -0.01795997 -0.35827315 -0.01961848
    -0.1715827  -0.0149453  -0.01947062 -0.1481778  -0.24955355
    -0.00352906 -0.2080973   0.202753   -0.3031637   0.0195328
    -0.22399333 -0.01351275 -0.02962024 -0.05381325 -0.0534518
    -0.03190803  0.18053833 -0.11958797 -0.17509565  0.03112132
    -0.5013873   0.33199096 -0.09629591  0.24002221 -0.03398757
    -0.06017452 -0.11297151  0.2675329   0.04074109 -0.05421447
    -0.2602613  -0.16971697 -0.07172085 -0.04120331  0.11408021
     0.12340042 -0.33929986 -0.18671001 -0.2714478   0.23764509
    -0.03315962 -0.10638037 -0.2946104  -0.22159517  0.00509662
    -0.07541154  0.0307329  -0.08157673 -0.10421003  0.01318065
     0.01715934  0.01864844  0.10304745 -0.2140464 ]]

  [[-0.04536374 -0.08525839 -0.1956408  -0.07446878 -0.02278865
    -0.0946471   0.04625242 -0.07641771 -0.37804207 -0.02877787
    -0.1912743  -0.12210928 -0.1275065  -0.13929418  0.17815451
    -0.03834235 -0.2854906  -0.37575564 -0.14690317 -0.04129087
     0.38786256  0.01758015 -0.21341668  0.15863465 -0.00921781
     0.04225084 -0.23972131  0.18490882 -0.26662248 -0.12121692
    -0.38474452  0.15793711 -0.15155968  0.01176181 -0.17929372
    -0.03355301 -0.15251161  0.29636717 -0.28606114 -0.09342679
    -0.02273797  0.01872127 -0.07403456 -0.03900492  0.17357025
    -0.3143915  -0.3410725  -0.2549885  -0.28432792  0.30764955
     0.25461018 -0.15524495 -0.05148406 -0.07183659 -0.02903792
    -0.02502614  0.05925289 -0.03681011 -0.07283938  0.00307162
     0.08977185 -0.03480192  0.11071296 -0.1106032 ]]

  [[ 0.0953471   0.01277418 -0.15236391 -0.01156071  0.06493312
    -0.09402789 -0.10038646 -0.09204169 -0.26067755  0.01535473
    -0.23714048  0.25936726 -0.09032895 -0.29646456 -0.15163997
    -0.10812471 -0.28476614 -0.00635682  0.17787139 -0.01784993
    -0.19231498 -0.00980432 -0.06475183 -0.09800513  0.03906742
    -0.09794932 -0.05030272 -0.07072631 -0.02630553 -0.12480219
    -0.01030198 -0.15799935  0.01392226 -0.00655354 -0.38961735
    -0.01416149 -0.12021096  0.3068679  -0.45634505 -0.0085866
    -0.04524134 -0.07951959 -0.08127641 -0.00784025 -0.221868
    -0.04616643 -0.13745993  0.17906673 -0.19654617  0.31118554
     0.34981805  0.00412991  0.20021605  0.05884313 -0.05619717
    -0.08904044  0.04048377 -0.05849585 -0.14631921 -0.02747841
     0.04480184 -0.08486303  0.10848241 -0.18452941]]]]
(64,)
[-0.07457142 -0.03354426 -0.10891086 -0.03780336 -0.07228106  0.16388522
 -0.06116865 -0.05585793 -0.0396163  -0.02672954 -0.06273703  0.05208577
 -0.09579813  0.07294468 -0.04816368 -0.02870138 -0.06207469 -0.05104157
 -0.0676366  -0.02043648  0.01539436 -0.05056427 -0.0757544   0.067169
 -0.02618586 -0.02006131 -0.05890242  0.04985129 -0.02989984 -0.03853553
 -0.016613   -0.09676751 -0.05019661  0.04277058  0.03399707 -0.06716622
 -0.0322253   0.05325233 -0.10683553 -0.02074334 -0.0006717   0.0218325
 -0.00806831 -0.05306463  0.06115282  0.10972551 -0.051829    0.02879862
  0.08501686 -0.06593925  0.03289211 -0.06206223 -0.08460608 -0.03295798
 -0.00707287 -0.05395755  0.00017669 -0.0147607  -0.0549715  -0.01153391
 -0.11545791 -0.02087418 -0.03778536 -0.05912845]
Layer: max_pooling2d
Layer: conv2d_1
(3, 3, 64, 128)
[[[[ 1.83497947e-02  6.21909536e-02  4.60127965e-02 ... -5.25556505e-02
     8.22541863e-03  4.42259163e-02]
   [ 3.20470966e-02 -3.82404588e-02 -4.91884239e-02 ... -2.27585789e-02
    -1.76245999e-02 -2.57794503e-02]
   [-6.38002604e-02 -5.22772111e-02  1.63139999e-02 ...  4.67511043e-02
    -3.69283780e-02 -5.72639219e-02]
   ...
   [ 2.60120369e-02  2.20270343e-02  1.72537211e-02 ...  9.44779720e-03
     1.95615869e-02  2.84026396e-02]
   [-6.53288811e-02  5.53117618e-02 -2.55271252e-02 ...  3.88360582e-03
     4.53614257e-02 -2.39803772e-02]
   [-2.11495683e-02  3.13791409e-02  4.92640510e-02 ...  8.05043429e-02
    -4.77183126e-02  9.71693266e-03]]

  [[ 6.06106706e-02 -7.04705762e-03  1.49861127e-02 ...  1.39895743e-02
    -1.08610047e-02  5.72282411e-02]
   [ 4.29805480e-02 -5.46314903e-02 -2.76792571e-02 ...  3.25455936e-03
     5.38999122e-03 -6.10200083e-03]
   [-2.56676618e-02 -5.85586317e-02 -7.34658912e-02 ...  5.67722693e-02
    -6.77417824e-03  2.79326793e-02]
   ...
   [ 5.94143458e-02 -1.05206231e-02 -4.33881655e-02 ...  8.60357843e-03
     1.54855046e-02 -3.70952189e-02]
   [-1.17667485e-02  1.09191919e-02 -4.20690924e-02 ... -1.99166968e-01
     2.09564772e-02 -7.84597099e-02]
   [ 1.22649558e-02  5.33173718e-02 -1.89251211e-02 ... -2.94277370e-02
     8.50199908e-03 -8.48252848e-02]]

  [[ 9.21386480e-03  5.49901240e-02  2.43774634e-02 ...  3.20927240e-03
     1.46774552e-03 -1.45977261e-02]
   [-3.85827720e-02 -6.81713074e-02 -3.56875658e-02 ... -2.38273833e-02
     1.04264338e-02 -2.75310669e-02]
   [ 2.41087172e-02  4.72378768e-02 -8.83529708e-03 ... -4.80429940e-02
     4.11747769e-02 -2.25525256e-02]
   ...
   [-1.46760512e-02  1.02255726e-02  5.98883815e-02 ... -9.30634066e-02
    -1.51477885e-02 -1.69935524e-02]
   [ 2.12433450e-02  1.90379273e-03 -5.00614289e-03 ... -3.42538953e-01
    -6.64097294e-02 -6.34613708e-02]
   [-4.91243303e-02  6.00737594e-02 -4.46581952e-02 ... -9.91114751e-02
     3.05779967e-02 -1.91284064e-03]]]


 [[[-3.79670374e-02 -6.18792400e-02  3.05481944e-02 ... -5.54017648e-02
     2.12498568e-02  2.35739928e-02]
   [-3.17802690e-02 -3.80470715e-02  8.03908333e-03 ...  6.95304498e-02
     5.73199131e-02  1.28927520e-02]
   [-3.70303690e-02  3.88514102e-02  2.81652361e-02 ... -3.92535180e-02
     4.50609215e-02 -4.29847911e-02]
   ...
   [ 3.48871201e-02 -1.84464734e-02 -4.43466827e-02 ... -3.14129815e-02
     3.23152877e-02  5.32111414e-02]
   [-8.51013872e-04  1.44395996e-02  1.38600981e-02 ... -7.22792000e-02
    -2.15570195e-04  3.43802832e-02]
   [-2.88638589e-03 -1.71555579e-02 -6.43706843e-02 ... -1.25217766e-01
    -1.42837334e-02  4.33893763e-02]]

  [[-4.81428206e-02  1.68844517e-02 -5.95810749e-02 ... -7.35725909e-02
     2.52364203e-02  3.47555918e-03]
   [-2.01275870e-02 -5.39995804e-02  1.93477434e-03 ...  1.04412995e-02
    -1.56736337e-02  1.16289137e-02]
   [ 2.73781661e-02 -2.54059024e-02 -4.10850113e-03 ...  8.74409303e-02
    -5.32395355e-02 -2.59132721e-02]
   ...
   [ 3.96173857e-02 -3.00070550e-02  8.39091465e-03 ... -3.19970213e-02
     1.90548450e-02  3.51989605e-02]
   [ 1.41338585e-02  5.27782738e-03  1.08630778e-02 ... -2.07397901e-02
    -3.67858857e-02  3.95920537e-02]
   [-4.43102904e-02  4.94117886e-02 -1.67970452e-02 ... -2.42623743e-02
     1.01273181e-02  4.03660722e-02]]

  [[ 4.45296541e-02 -5.87008446e-02  1.94723345e-02 ... -8.37546289e-02
     3.08905020e-02  4.13120762e-02]
   [ 6.37571421e-03 -9.88082774e-03  4.15819287e-02 ...  1.95367970e-02
    -1.95598719e-03 -4.64683771e-02]
   [-3.51113789e-02  4.22695130e-02 -4.84545864e-02 ... -2.56524747e-03
    -3.36694047e-02  2.77963988e-02]
   ...
   [-2.02948842e-02  4.25578095e-02 -5.74022881e-04 ... -5.04631409e-03
    -2.42731604e-03 -4.14691791e-02]
   [-1.21700270e-02 -1.92964952e-02 -7.25299940e-02 ... -1.27180159e-01
     3.37718129e-02  3.21942382e-02]
   [-4.31187935e-02 -1.10350791e-02 -2.23682192e-03 ...  2.49168314e-02
     2.90815234e-02 -1.57622769e-02]]]


 [[[ 2.22440697e-02 -2.64236405e-02 -2.29306109e-02 ...  2.53662951e-02
     1.51253818e-02 -5.74395880e-02]
   [-5.41743971e-02  1.97231327e-03 -2.54802825e-03 ... -2.39137132e-02
    -3.59202474e-02 -4.00641710e-02]
   [-4.00533387e-03  1.23815443e-02  3.02999485e-02 ... -1.11469559e-01
    -5.29455915e-02 -4.14871648e-02]
   ...
   [ 3.36861722e-02  3.72863226e-02  1.19974893e-02 ... -1.90428295e-03
     3.60097848e-02  4.60130582e-03]
   [-2.73834188e-02  2.64749024e-02  3.17310020e-02 ...  9.44036990e-03
    -1.19857658e-02 -6.61761239e-02]
   [-5.12919575e-02 -3.16713415e-02  4.47239578e-02 ...  2.83066537e-02
     4.09652367e-02  4.29878794e-02]]

  [[-5.71290590e-02  6.08089752e-02 -5.65403588e-02 ... -9.91820171e-02
     5.03556021e-02  4.85199504e-02]
   [-4.95249778e-02 -5.40837720e-02  3.02686580e-02 ...  6.45812303e-02
    -4.71021794e-02  4.54271911e-03]
   [ 3.94626297e-02 -4.31575514e-02 -7.46490955e-02 ... -4.96705137e-02
     1.59390867e-02 -5.88769913e-02]
   ...
   [-2.96706036e-02 -3.03032659e-02  1.83224771e-02 ...  3.45531409e-03
    -2.27601118e-02 -1.74069032e-02]
   [ 6.01299293e-02 -4.55579497e-02 -7.36494735e-02 ... -8.94116312e-02
     1.96924694e-02 -7.95349944e-03]
   [-3.40869799e-02  4.15221751e-02  3.86583470e-02 ...  5.07677011e-02
    -2.56341249e-02 -2.23119892e-02]]

  [[-5.26273297e-03  4.78855185e-02  1.53963752e-02 ...  1.83275621e-02
    -4.25416604e-02  4.98381145e-02]
   [-5.09102829e-02 -4.19327207e-02  6.16892753e-03 ... -1.50565226e-02
    -4.05644402e-02  1.73994899e-02]
   [ 4.60523032e-02  4.37471038e-03 -4.17554639e-02 ... -4.25489619e-02
    -3.54328640e-02 -3.33948024e-02]
   ...
   [ 3.49954329e-02  5.63712977e-02  3.46722938e-02 ...  2.56311055e-03
    -2.67470852e-02 -4.37470265e-02]
   [-4.94429059e-02 -2.20192708e-02  3.87281459e-03 ...  1.06115639e-02
    -3.64629328e-02 -3.71117890e-02]
   [ 2.12524831e-02  4.30194065e-02 -3.10006868e-02 ... -4.54396792e-02
     4.22265828e-02 -2.94801835e-02]]]]
(128,)
[-0.01827009 -0.04249296  0.00096824 -0.02022778 -0.03666894  0.15639305
  0.04973283 -0.01612039 -0.03112039 -0.0118172  -0.01709783 -0.03068315
  0.1041714  -0.02720113 -0.06417041  0.1961727  -0.02572527 -0.03696582
 -0.02814393 -0.01395224 -0.02949461 -0.0340861   0.27623427 -0.02551052
 -0.01120326 -0.02401555 -0.04549504 -0.03162619 -0.02171257 -0.02216426
 -0.04222946 -0.03911899 -0.05524397 -0.01610721 -0.04019533 -0.02890391
 -0.0289887  -0.01885108 -0.03153488 -0.01981187 -0.02798232 -0.05261636
 -0.00914333 -0.05750479 -0.07946677 -0.00612097 -0.02517364 -0.01336256
 -0.04134468 -0.02689716 -0.01280963 -0.00541721 -0.02032611 -0.02709904
 -0.02089232 -0.03961514 -0.03258202 -0.02776857  0.00083668 -0.0376951
 -0.05448342 -0.03648806 -0.05486894 -0.04521614 -0.03436562 -0.03676687
 -0.0280791  -0.01697844 -0.0250058  -0.03249762 -0.03249794 -0.01206693
  0.06483615  0.17642829 -0.00991586 -0.03324436 -0.04645441 -0.01005465
 -0.02230602 -0.02022613 -0.01132466 -0.01795355 -0.05307655 -0.04294507
 -0.03949472  0.06194955  0.01318933 -0.01182822 -0.04998965 -0.02571302
 -0.03130328  0.01260271  0.15744661 -0.00788585 -0.03098059 -0.02095545
 -0.02193742 -0.02712179 -0.049051   -0.01981807 -0.03558952  0.39157566
 -0.02527262 -0.03423662 -0.03414581 -0.04402493 -0.03552728 -0.04430561
  0.01677915 -0.03603239 -0.10384303 -0.01815017 -0.09329722 -0.04189825
 -0.01354716 -0.00999922 -0.02563414 -0.01600037 -0.00758142 -0.06671216
 -0.10302679 -0.01020228  0.11752266 -0.01496157 -0.04893333 -0.10880361
 -0.02829832 -0.02169563]
Layer: max_pooling2d_1
Layer: flatten
Layer: dense
(67712, 128)
[[ 0.00690806  0.00499482 -0.00178463 ... -0.00411071 -0.00620095
  -0.00270627]
 [-0.00094143 -0.00056287  0.00183585 ...  0.00414529  0.00206277
  -0.00710157]
 [-0.00895709 -0.00603566  0.00111439 ... -0.01703237 -0.00682453
  -0.00575887]
 ...
 [-0.0140524   0.0078053   0.04948143 ... -0.01782763 -0.00028544
  -0.00120493]
 [ 0.00208479 -0.00791929 -0.00853167 ...  0.00128495 -0.00683787
  -0.00299932]
 [-0.00419889  0.00272503  0.02187845 ... -0.00601765  0.00369026
  -0.01819047]]
(128,)
[-3.2834061e-03 -5.5548828e-03  3.5008901e-01 -5.4525030e-03
 -5.9831627e-03 -5.9917378e-03 -6.6839396e-03 -3.9822855e-03
 -3.9571500e-03  1.2137229e-01 -1.0188251e-02 -6.0037351e-03
 -6.0043219e-03  2.6200214e-01 -5.9624366e-03 -2.5298653e-02
 -6.7555998e-04  3.7332382e-02 -7.0505089e-04 -3.2287848e-03
 -4.5804465e-03 -6.9560707e-03 -6.0038902e-03 -9.3453033e-03
 -4.7333511e-03 -9.1884620e-03  0.0000000e+00 -5.5531999e-03
 -7.4846763e-03 -8.2734507e-03 -4.5993193e-03 -3.3412147e-02
 -5.2104844e-03 -2.3176812e-03 -5.5324160e-03 -6.0035959e-03
  5.8019763e-01 -5.1073870e-03 -2.6118497e-03 -5.2226121e-03
 -6.0022511e-03  1.8324336e-03 -3.1766859e-03 -1.5458015e-02
 -4.6358905e-03 -6.0032369e-03 -2.0288331e-02 -1.9167915e-02
 -2.0360490e-02 -6.0010399e-03 -2.3738429e-02 -6.0021072e-03
 -5.0565130e-03 -8.3425129e-03 -2.0086954e-03 -6.0017430e-03
 -5.3424509e-03 -2.5572088e-02 -9.9423539e-04 -6.2977435e-04
  3.6443171e-01 -3.2479221e-03  2.9388177e-01  1.6254734e-01
  2.5376290e-01 -9.0167420e-03 -3.2431565e-03 -6.0033742e-03
  2.1552105e-01  2.0289429e-02 -2.1864062e-03  1.1710475e-03
  2.4420569e-02 -6.0020178e-03 -1.5109882e-02 -3.4393538e-03
 -1.5894897e-02  6.8539327e-01  5.5991942e-03 -5.9969141e-03
 -2.1136213e-02  3.6243552e-01 -1.1135924e-02  4.1037670e-01
 -6.0003810e-03 -2.5004547e-02 -5.9963888e-03 -5.7838950e-03
 -5.9996555e-03 -7.3665851e-03 -6.0046175e-03 -7.2658332e-03
  5.2911178e-03 -9.1236876e-03 -5.3366562e-03  3.1485516e-03
 -2.0403417e-02 -5.9847431e-03 -1.4502036e-02 -6.0033281e-03
 -9.4402041e-03  8.9588517e-01  3.3407119e-01 -2.3377428e-02
 -7.3264241e-03  0.0000000e+00  1.3334002e-01 -5.9302771e-03
 -5.9968126e-03 -5.5165822e-03  2.9293885e-03 -2.0304630e-02
 -1.0661136e-02 -6.0036839e-03  2.3756810e-02 -2.0392692e-02
 -1.2118365e-02  3.8265006e-04  1.9602482e-01  3.3664256e-01
 -8.6491341e-03  2.5725672e-01  2.5212920e-01  2.8760629e-03
 -8.6506782e-03 -8.4774001e-03 -4.7556791e-03 -1.1813119e-03]
Layer: dense_1
(128, 64)
[[ 0.00587091 -0.13297817 -0.15288612 ... -0.02600727 -0.12755449
   0.06049595]
 [ 0.10267752 -0.06414649  0.16060051 ... -0.13836533 -0.00727916
  -0.06572731]
 [ 0.3825371  -0.00477456  0.26877603 ...  0.08610569 -0.1678763
  -0.28449467]
 ...
 [-0.02247647  0.06560616  0.0632004  ...  0.11699451 -0.02477421
  -0.02429871]
 [ 0.15618104 -0.0280462  -0.02273773 ...  0.1536622  -0.04887021
  -0.00417051]
 [-0.18352969 -0.04936291 -0.12319895 ...  0.15331353  0.17201643
   0.04225817]]
(64,)
[0. 0. 0. 0. 0. 0. 0. 0. 0. 0. 0. 0. 0. 0. 0. 0. 0. 0. 0. 0. 0. 0. 0. 0.
 0. 0. 0. 0. 0. 0. 0. 0. 0. 0. 0. 0. 0. 0. 0. 0. 0. 0. 0. 0. 0. 0. 0. 0.
 0. 0. 0. 0. 0. 0. 0. 0. 0. 0. 0. 0. 0. 0. 0. 0.]